{
  "classification": {
    "linear_utility+binary_logit": {
      "train": {
        "n_iter": 200,
        "nll": 5911.439043469235,
        "beta_norm": 3.368189916779691,
        "intercept": -0.04927779841698452,
        "acc": 0.8854779228545799,
        "brier": 0.08731284348094674,
        "logloss": 0.29459694607558345
      },
      "test": {
        "acc": 0.8927646003587801,
        "brier": 0.08357859676533894,
        "logloss": 0.28496760828076223
      },
      "utility_params": {
        "beta": [
          -0.11771101969491447,
          -0.14566245131359892,
          -2.4722210811133594,
          0.5923615707291812,
          -0.10065831854237242,
          -0.16989553773472732,
          -1.0650128766979836,
          0.03015442398545192,
          -0.3401258740472127,
          -0.45539977255622843,
          0.04736172369386122,
          0.15611910586686104,
          -0.7736763399212843,
          0.04743994222794967,
          -0.08851424584860021,
          -0.0453860599028845,
          -1.2491063694526645,
          1.0730394278434652,
          -0.015107510512365132,
          0.01758375555045707,
          0.008564110337683763
        ],
        "intercept": -0.04927779841698452
      }
    },
    "linear_utility+binary_probit": {
      "train": {
        "n_iter": 28,
        "nll": 5922.785370082007,
        "acc": 0.8834346656035085,
        "brier": 0.08775599590754875,
        "logloss": 0.2951652232652384
      },
      "test": {
        "acc": 0.8909706996212876,
        "brier": 0.08417409969000943,
        "logloss": 0.28598096785335975
      },
      "utility_params": {
        "beta": [
          -0.0632791376660963,
          -0.07882247936920031,
          -1.3338443014442598,
          0.27223793307403654,
          -0.16033101047384657,
          -0.19581367559511398,
          -0.7076316616445033,
          -0.026451489060051774,
          -0.23360248053664184,
          -0.30286541877420226,
          -0.03343559554123507,
          0.04239747146094757,
          -0.5098188352487744,
          -0.044428374674794054,
          -0.11726864432042447,
          -0.09543718135816882,
          -0.8066421473737165,
          0.5903005932738802,
          -0.010837176109031956,
          0.00859310423880705,
          0.004977524801045386
        ],
        "intercept": 0.2225125866780361
      }
    },
    "prospect_utility+binary_logit": {
      "train": {
        "n_iter": 200,
        "nll": 6375.989176492201,
        "beta_norm": 2.4937665614495343,
        "intercept": -0.20197046455808615,
        "acc": 0.8753114721419316,
        "brier": 0.09333971091223689,
        "logloss": 0.3177493313133602
      },
      "test": {
        "acc": 0.8784133944588399,
        "brier": 0.08999271142550214,
        "logloss": 0.3090583563873229
      },
      "utility_params": {
        "beta": [
          -0.0850709810967374,
          -0.15383115063695443,
          -1.8189131405447871,
          0.433959832509893,
          0.19343248247004527,
          0.0792410571336344,
          -0.5841894175068538,
          0.18989316928854064,
          -0.08419078120271502,
          -0.23922562785374518,
          0.23772200917446693,
          0.2496606340709058,
          -0.6653752813671312,
          0.2801013725347574,
          0.17238711101717014,
          0.19011661972905855,
          -0.9541209811806274,
          0.7673311043797347,
          -0.01260711401624756,
          0.025315996272330606,
          0.0051850208670711365
        ],
        "intercept": -0.20197046455808615,
        "alpha": 0.88,
        "beta_v": 0.88,
        "lambda": 2.25,
        "pw_gamma": 0.65
      }
    },
    "prospect_utility+binary_probit": {
      "train": {
        "n_iter": 200,
        "nll": 6152.077287415223,
        "acc": 0.87062693112728,
        "brier": 0.09174406171359334,
        "logloss": 0.30659211040369116
      },
      "test": {
        "acc": 0.8752242375921866,
        "brier": 0.08821245314460138,
        "logloss": 0.2999411747398526
      },
      "utility_params": {
        "beta": [
          -0.04147309498044402,
          -0.07777722976900601,
          -0.8969565616654832,
          0.17617438811158503,
          0.10479828354227579,
          0.05235965443408712,
          -0.33845051129992526,
          0.10617084584610872,
          -0.04444121231892452,
          -0.12249076973086041,
          0.11695716553125646,
          0.14501198691548642,
          -0.3825005890556582,
          0.16653812384303598,
          0.10662731429859419,
          0.1076865981015525,
          -0.5621446090085317,
          0.39156907817273395,
          -0.007714398260576114,
          0.01018362846592811,
          0.0036289436475111137
        ],
        "intercept": -0.0717471602008731,
        "alpha": 0.88,
        "beta_v": 0.88,
        "lambda": 2.25,
        "pw_gamma": 0.65
      }
    },
    "risk_averse_linear+binary_logit": {
      "train": {
        "n_iter": 200,
        "nll": 5939.681621164181,
        "beta_norm": 3.3952704473816078,
        "intercept": -0.05649994236977977,
        "acc": 0.8821389414930728,
        "brier": 0.08790470922038611,
        "logloss": 0.29600438462359846
      },
      "test": {
        "acc": 0.890572055012956,
        "brier": 0.08407058531992638,
        "logloss": 0.2857967852491301
      },
      "utility_params": {
        "beta": [
          -0.11902633508833549,
          -0.16421128235709245,
          -2.4519447149305775,
          0.5675484610178299,
          -0.026165187339514746,
          -0.12038774609514086,
          -1.0368922478124871,
          0.07718151569018246,
          -0.2970894563191007,
          -0.4281012961171846,
          0.10698943107310448,
          0.19328113386820903,
          -0.8357065094523235,
          0.1429372274989475,
          0.003543718050870864,
          0.03981558238473513,
          -1.3697417091856603,
          1.0670298473207982,
          -0.015299480400888918,
          0.021961789144007492,
          0.008450533802205465
        ],
        "intercept": -0.05649994236977977,
        "gamma": 0.1
      }
    },
    "risk_averse_linear+binary_probit": {
      "train": {
        "n_iter": 28,
        "nll": 5929.820374100485,
        "acc": 0.8820392704076547,
        "brier": 0.08814487876172006,
        "logloss": 0.2955158165084157
      },
      "test": {
        "acc": 0.890572055012956,
        "brier": 0.08455716173489239,
        "logloss": 0.2870433949832772
      },
      "utility_params": {
        "beta": [
          -0.06336922392101925,
          -0.08514161845875728,
          -1.3229158617025225,
          0.26428289582254577,
          -0.11157386484848696,
          -0.15508501904430863,
          -0.6887050844764209,
          0.0014540585689528957,
          -0.21045310577519669,
          -0.2827833508792006,
          -0.00295329935720357,
          0.06591618343681474,
          -0.5265444541774336,
          0.004909305193993796,
          -0.06686319485636907,
          -0.04765473537686707,
          -0.8457553429865687,
          0.5880932138162049,
          -0.010472553241051662,
          0.009767844379167383,
          0.004778666557132998
        ],
        "intercept": 0.171581270633431,
        "gamma": 0.1
      }
    }
  },
  "hours": {
    "ols": {
      "train": {
        "rmse": 10.389991014556733,
        "mae": 6.908111070221987
      },
      "test": {
        "rmse": 10.611301290555575,
        "mae": 7.098771465283763
      },
      "coef_intercept": {
        "intercept": 13.51092734285132
      }
    },
    "huber": {
      "train": {
        "rmse": 10.864518645024635,
        "mae": 6.247361303745929
      },
      "test": {
        "rmse": 11.120106720672876,
        "mae": 6.460128698490038
      },
      "coef_intercept": {
        "intercept": 13.683292095564022
      }
    }
  }
}